-0.109279625
-0.028236343
-0.6849308
-0.085919045
0.06628932
-1.1175195
0.47341123
0.2622796
-0.67307144
0.39247236
-0.083289765
-0.3334772
-0.21623404
0.048967496
-0.36860114
-0.36665788
-0.035869144
-0.3304639
-0.14041775
0.14352612
-0.4269105
-0.35557863
0.29815203
-0.5891186
-0.27094394
0.19904436
-0.76514894
-0.091466226
0.16068925
-0.3800224
0.0974427
-0.03197909
-0.041725073
0.020172533
-0.21516074
-0.38297713
-0.42044374
-0.29226613
-0.42550918
0.158865
-0.06353132
-0.19850701
0.14686385
-0.07831395
-0.3581473
0.096431226
-0.10661707
-0.66881484
0.30080956
0.057287734
-0.56334126
0.22142768
0.3831782
-0.538082
0.10748616
0.38442653
-0.6766201
-0.0031060432
0.21183902
-0.4684645
-0.2021968
0.085427806
-0.07299001
-0.056407377
0.27267754
-0.09732024
-0.25759444
0.023552518
-0.43146005
-0.23620592
0.06777451
-0.18498875
0.030828215
0.06694089
-0.0023559085
-0.20037575
-0.11661077
-0.08790772
0.02068298
-0.3400958
0.11294344
0.19844395
-0.32628292
0.097581394
0.31672516
-0.14783996
-0.31920516
0.28403413
-0.049036175
-0.30837005
0.16583125
0.07252532
-0.39294478
0.6480033
0.045017608
-0.03255626
0.2632215
0.03126929
-0.5823793
-0.07807974
-0.17916213
-0.44334432
-0.051134564
0.14553526
0.07290392
-0.12962312
0.36308467
0.0071101035
-0.03703861
0.17093816
-0.23477054
0.13593197
-0.08610358
0.14943835
0.02076339
-0.014667456
0.23013666
-0.24808869
-0.0016722061
0.08786536
-0.3322044
-0.54391944
-0.09551408
-0.015705427
-0.3589067
0.0046157036
0.36185795
-0.15953319
-0.20189771
0.6486044
-0.2987544
-0.61568487
0.43547922
-0.12175326
-0.47019953
0.5179252
-0.09392912
-0.18481264
0.23776804
-0.052774977
-0.23917773
0.036983736
0.02786995
-0.66005784
0.25606963
-0.15236506
-0.16093343
0.019561237
0.22881848
-0.2882097
-0.24434125
0.26860026
-0.455967
-0.14397903
-0.10553893
-0.35246885
-0.10646928
2.9774464E-4
0.046583213
-0.10010014
-0.21607865
-0.1825036
-0.28437668
-0.3964189
-0.08647052
0.14146908
-0.42141345
0.18904796
0.2948192
-0.40160325
-0.1400539
0.13117912
-0.37524083
-0.81942415
0.5707765
-0.698928
-0.63382214
0.3669087
-0.30841452
-0.6875245
0.68822783
-0.38483298
-0.25432688
-0.17310789
-0.22498773
-0.5477411
-0.17070805
-0.14347844
-0.40013903
0.27807876
0.11795636
-0.5562274
0.30141324
0.057137463
-0.6970641
0.111205034
-0.115782425
-0.61923975
-0.0796731
-0.15534776
